digraph Tree {
node [shape=box] ;
0 [label="electricity consumption <= 9152999424.0\nentropy = 0.9896\nsamples = 100\nvalue = [44, 56]"] ;
1 [label="electricity consumption per person <= 5314.123\nentropy = 0.5618\nsamples = 38\nvalue = [33, 5]"] ;
0 -> 1 [labeldistance=2.5, labelangle=45, headlabel="True"] ;
2 [label="internet users <= 3172500.0\nentropy = 0.422\nsamples = 35\nvalue = [32, 3]"] ;
1 -> 2 ;
3 [label="public debt <= 100.25\nentropy = 0.3228\nsamples = 34\nvalue = [32, 2]"] ;
2 -> 3 ;
4 [label="education expenditures <= 8.25\nentropy = 0.2006\nsamples = 32\nvalue = [31, 1]"] ;
3 -> 4 ;
5 [label="entropy = 0.0\nsamples = 29\nvalue = [29, 0]"] ;
4 -> 5 ;
6 [label="unemployment rate <= 16.6\nentropy = 0.9183\nsamples = 3\nvalue = [2, 1]"] ;
4 -> 6 ;
7 [label="entropy = 0.0\nsamples = 1\nvalue = [0, 1]"] ;
6 -> 7 ;
8 [label="entropy = 0.0\nsamples = 2\nvalue = [2, 0]"] ;
6 -> 8 ;
9 [label="public debt <= 111.55\nentropy = 1.0\nsamples = 2\nvalue = [1, 1]"] ;
3 -> 9 ;
10 [label="entropy = 0.0\nsamples = 1\nvalue = [0, 1]"] ;
9 -> 10 ;
11 [label="entropy = 0.0\nsamples = 1\nvalue = [1, 0]"] ;
9 -> 11 ;
12 [label="entropy = 0.0\nsamples = 1\nvalue = [0, 1]"] ;
2 -> 12 ;
13 [label="internet users <= 508750.0\nentropy = 0.9183\nsamples = 3\nvalue = [1, 2]"] ;
1 -> 13 ;
14 [label="entropy = 0.0\nsamples = 1\nvalue = [1, 0]"] ;
13 -> 14 ;
15 [label="entropy = 0.0\nsamples = 2\nvalue = [0, 2]"] ;
13 -> 15 ;
16 [label="public debt <= 35.85\nentropy = 0.6744\nsamples = 62\nvalue = [11, 51]"] ;
0 -> 16 [labeldistance=2.5, labelangle=-45, headlabel="False"] ;
17 [label="region <= 2.5\nentropy = 0.9928\nsamples = 20\nvalue = [9, 11]"] ;
16 -> 17 ;
18 [label="entropy = 0.0\nsamples = 6\nvalue = [0, 6]"] ;
17 -> 18 ;
19 [label="inflation rate <= 7.65\nentropy = 0.9403\nsamples = 14\nvalue = [9, 5]"] ;
17 -> 19 ;
20 [label="electricity consumption <= 33964998656.0\nentropy = 0.684\nsamples = 11\nvalue = [9, 2]"] ;
19 -> 20 ;
21 [label="inflation rate <= 2.85\nentropy = 1.0\nsamples = 4\nvalue = [2, 2]"] ;
20 -> 21 ;
22 [label="entropy = 0.0\nsamples = 2\nvalue = [2, 0]"] ;
21 -> 22 ;
23 [label="entropy = 0.0\nsamples = 2\nvalue = [0, 2]"] ;
21 -> 23 ;
24 [label="entropy = 0.0\nsamples = 7\nvalue = [7, 0]"] ;
20 -> 24 ;
25 [label="entropy = 0.0\nsamples = 3\nvalue = [0, 3]"] ;
19 -> 25 ;
26 [label="exports <= 5726000128.0\nentropy = 0.2762\nsamples = 42\nvalue = [2, 40]"] ;
16 -> 26 ;
27 [label="public debt <= 83.4\nentropy = 0.9183\nsamples = 3\nvalue = [2, 1]"] ;
26 -> 27 ;
28 [label="entropy = 0.0\nsamples = 1\nvalue = [0, 1]"] ;
27 -> 28 ;
29 [label="entropy = 0.0\nsamples = 2\nvalue = [2, 0]"] ;
27 -> 29 ;
30 [label="entropy = 0.0\nsamples = 39\nvalue = [0, 39]"] ;
26 -> 30 ;
}